<?xml version="1.0" encoding="UTF-8" standalone="yes"?>
<PMML xmlns="http://www.dmg.org/PMML-4_2" version="4.2">
    <DataDictionary numberOfFields="32">
        <DataField name="id" optype="ordinal" dataType="string"/>
        <DataField name="diagnosis" optype="categorical" dataType="string"/>
        <DataField name="mean_radius" optype="continuous" dataType="double"/>
        <DataField name="mean_texture" optype="continuous" dataType="double"/>
        <DataField name="mean_perimeter" optype="continuous" dataType="double"/>
        <DataField name="mean_area" optype="continuous" dataType="double"/>
        <DataField name="mean_smoothness" optype="continuous" dataType="double"/>
        <DataField name="mean_compactness" optype="continuous" dataType="double"/>
        <DataField name="mean_concavity" optype="continuous" dataType="double"/>
        <DataField name="mean_concave_points" optype="continuous" dataType="double"/>
        <DataField name="mean_symmetry" optype="continuous" dataType="double"/>
        <DataField name="mean_fractal_dimension" optype="continuous" dataType="double"/>
        <DataField name="std_radius" optype="continuous" dataType="double"/>
        <DataField name="std_texture" optype="continuous" dataType="double"/>
        <DataField name="std_perimeter" optype="continuous" dataType="double"/>
        <DataField name="std_area" optype="continuous" dataType="double"/>
        <DataField name="std_smoothness" optype="continuous" dataType="double"/>
        <DataField name="std_compactness" optype="continuous" dataType="double"/>
        <DataField name="std_concavity" optype="continuous" dataType="double"/>
        <DataField name="std_concave_points" optype="continuous" dataType="double"/>
        <DataField name="std_symmetry" optype="continuous" dataType="double"/>
        <DataField name="std_fractal_dimension" optype="continuous" dataType="double"/>
        <DataField name="worst_radius" optype="continuous" dataType="double"/>
        <DataField name="worst_texture" optype="continuous" dataType="double"/>
        <DataField name="worst_perimeter" optype="continuous" dataType="double"/>
        <DataField name="worst_area" optype="continuous" dataType="double"/>
        <DataField name="worst_smoothness" optype="continuous" dataType="double"/>
        <DataField name="worst_compactness" optype="continuous" dataType="double"/>
        <DataField name="worst_concavity" optype="continuous" dataType="double"/>
        <DataField name="worst_concave_points" optype="continuous" dataType="double"/>
        <DataField name="worst_symmetry" optype="continuous" dataType="double"/>
        <DataField name="worst_fractal_dimension" optype="continuous" dataType="double"/>
    </DataDictionary>
    <NeuralNetwork modelName="demoModel">
        <MiningSchema>
            <MiningField name="id" usageType="supplementary" optype="ordinal"/>
            <MiningField name="diagnosis" usageType="target" optype="categorical"/>
            <MiningField name="mean_radius" usageType="active" optype="continuous"/>
            <MiningField name="mean_texture" usageType="active" optype="continuous"/>
            <MiningField name="mean_perimeter" usageType="active" optype="continuous"/>
            <MiningField name="mean_area" usageType="active" optype="continuous"/>
            <MiningField name="mean_smoothness" usageType="active" optype="continuous"/>
            <MiningField name="mean_compactness" usageType="active" optype="continuous"/>
            <MiningField name="mean_concavity" usageType="active" optype="continuous"/>
            <MiningField name="mean_concave_points" usageType="active" optype="continuous"/>
            <MiningField name="mean_symmetry" usageType="active" optype="continuous"/>
            <MiningField name="mean_fractal_dimension" usageType="active" optype="continuous"/>
            <MiningField name="std_radius" usageType="active" optype="continuous"/>
            <MiningField name="std_texture" usageType="active" optype="continuous"/>
            <MiningField name="std_perimeter" usageType="active" optype="continuous"/>
            <MiningField name="std_area" usageType="active" optype="continuous"/>
            <MiningField name="std_smoothness" usageType="active" optype="continuous"/>
            <MiningField name="std_compactness" usageType="active" optype="continuous"/>
            <MiningField name="std_concavity" usageType="active" optype="continuous"/>
            <MiningField name="std_concave_points" usageType="active" optype="continuous"/>
            <MiningField name="std_symmetry" usageType="active" optype="continuous"/>
            <MiningField name="std_fractal_dimension" usageType="active" optype="continuous"/>
            <MiningField name="worst_radius" usageType="active" optype="continuous"/>
            <MiningField name="worst_texture" usageType="active" optype="continuous"/>
            <MiningField name="worst_perimeter" usageType="active" optype="continuous"/>
            <MiningField name="worst_area" usageType="active" optype="continuous"/>
            <MiningField name="worst_smoothness" usageType="active" optype="continuous"/>
            <MiningField name="worst_compactness" usageType="active" optype="continuous"/>
            <MiningField name="worst_concavity" usageType="active" optype="continuous"/>
            <MiningField name="worst_concave_points" usageType="active" optype="continuous"/>
            <MiningField name="worst_symmetry" usageType="active" optype="continuous"/>
            <MiningField name="worst_fractal_dimension" usageType="active" optype="continuous"/>
        </MiningSchema>
        <ModelStats>
            <UnivariateStats field="id">
                <Counts totalFreq="569.0" missingFreq="0.0" invalidFreq="0.0"/>
            </UnivariateStats>
            <UnivariateStats field="diagnosis">
                <Counts totalFreq="569.0" missingFreq="0.0" invalidFreq="569.0"/>
                <DiscrStats>
                    <Array n="2" type="int">357 212</Array>
                    <Array n="2" type="string">B M</Array>
                </DiscrStats>
            </UnivariateStats>
            <UnivariateStats field="mean_radius">
                <Counts totalFreq="569.0" missingFreq="0.0" invalidFreq="0.0"/>
                <NumericInfo minimum="6.981" maximum="28.11" mean="14.127291739894563" standardDeviation="3.5240488264618444"/>
                <ContStats totalValuesSum="8038.429000000006" totalSquaresSum="120615.17824700009"/>
            </UnivariateStats>
            <UnivariateStats field="mean_texture">
                <Counts totalFreq="569.0" missingFreq="0.0" invalidFreq="0.0"/>
                <NumericInfo minimum="9.71" maximum="39.28" mean="19.28964850615117" standardDeviation="4.301035768371497"/>
                <ContStats totalValuesSum="10975.810000000016" totalSquaresSum="222226.89710000003"/>
            </UnivariateStats>
            <UnivariateStats field="mean_perimeter">
                <Counts totalFreq="569.0" missingFreq="0.0" invalidFreq="0.0"/>
                <NumericInfo minimum="43.79" maximum="188.5" mean="91.96903339191566" standardDeviation="24.298981038790973"/>
                <ContStats totalValuesSum="52330.38000000001" totalSquaresSum="5148144.657999998"/>
            </UnivariateStats>
            <UnivariateStats field="mean_area">
                <Counts totalFreq="569.0" missingFreq="0.0" invalidFreq="0.0"/>
                <NumericInfo minimum="143.5" maximum="2501.0" mean="654.8891036906857" standardDeviation="351.9141291816553"/>
                <ContStats totalValuesSum="372631.9000000002" totalSquaresSum="3.143757098500002E8"/>
            </UnivariateStats>
            <UnivariateStats field="mean_smoothness">
                <Counts totalFreq="569.0" missingFreq="0.0" invalidFreq="0.0"/>
                <NumericInfo minimum="0.05263" maximum="0.1634" mean="0.096360281195079" standardDeviation="0.014064190728096667"/>
                <ContStats totalValuesSum="54.82899999999995" totalSquaresSum="5.395688087399989"/>
            </UnivariateStats>
            <UnivariateStats field="mean_compactness">
                <Counts totalFreq="569.0" missingFreq="0.0" invalidFreq="0.0"/>
                <NumericInfo minimum="0.01938" maximum="0.3454" mean="0.10434098418277686" standardDeviation="0.05281277460048369"/>
                <ContStats totalValuesSum="59.37002000000003" totalSquaresSum="7.7789847611999985"/>
            </UnivariateStats>
            <UnivariateStats field="mean_concavity">
                <Counts totalFreq="569.0" missingFreq="0.0" invalidFreq="0.0"/>
                <NumericInfo minimum="0.0" maximum="0.4268" mean="0.08879931581722322" standardDeviation="0.07971981975008785"/>
                <ContStats totalValuesSum="50.52681070000001" totalSquaresSum="8.096527028026685"/>
            </UnivariateStats>
            <UnivariateStats field="mean_concave_points">
                <Counts totalFreq="569.0" missingFreq="0.0" invalidFreq="0.0"/>
                <NumericInfo minimum="0.0" maximum="0.2012" mean="0.048919145869947236" standardDeviation="0.038802867545156106"/>
                <ContStats totalValuesSum="27.834993999999977" totalSquaresSum="2.2168794486600008"/>
            </UnivariateStats>
            <UnivariateStats field="mean_symmetry">
                <Counts totalFreq="569.0" missingFreq="0.0" invalidFreq="0.0"/>
                <NumericInfo minimum="0.106" maximum="0.304" mean="0.181161862917399" standardDeviation="0.027414313446348548"/>
                <ContStats totalValuesSum="103.08110000000003" totalSquaresSum="19.101240429999987"/>
            </UnivariateStats>
            <UnivariateStats field="mean_fractal_dimension">
                <Counts totalFreq="569.0" missingFreq="0.0" invalidFreq="0.0"/>
                <NumericInfo minimum="0.04996" maximum="0.09744" mean="0.06279760984182778" standardDeviation="0.007060487473368245"/>
                <ContStats totalValuesSum="35.731840000000005" totalSquaresSum="2.2721882217999987"/>
            </UnivariateStats>
            <UnivariateStats field="std_radius">
                <Counts totalFreq="569.0" missingFreq="0.0" invalidFreq="0.0"/>
                <NumericInfo minimum="0.1115" maximum="2.873" mean="0.4051720562390161" standardDeviation="0.2773127361604316"/>
                <ContStats totalValuesSum="230.54290000000015" totalSquaresSum="137.0900767099999"/>
            </UnivariateStats>
            <UnivariateStats field="std_texture">
                <Counts totalFreq="569.0" missingFreq="0.0" invalidFreq="0.0"/>
                <NumericInfo minimum="0.3602" maximum="4.885" mean="1.2168534270650269" standardDeviation="0.55164839421293"/>
                <ContStats totalValuesSum="692.3896000000003" totalSquaresSum="1015.3881166999996"/>
            </UnivariateStats>
            <UnivariateStats field="std_perimeter">
                <Counts totalFreq="569.0" missingFreq="0.0" invalidFreq="0.0"/>
                <NumericInfo minimum="0.757" maximum="21.98" mean="2.8660592267135288" standardDeviation="2.0218545544774957"/>
                <ContStats totalValuesSum="1630.7876999999978" totalSquaresSum="6995.858970209999"/>
            </UnivariateStats>
            <UnivariateStats field="std_area">
                <Counts totalFreq="569.0" missingFreq="0.0" invalidFreq="0.0"/>
                <NumericInfo minimum="6.802" maximum="542.2" mean="40.33707908611603" standardDeviation="45.49100551615113"/>
                <ContStats totalValuesSum="22951.79800000002" totalSquaresSum="2101245.630164"/>
            </UnivariateStats>
            <UnivariateStats field="std_smoothness">
                <Counts totalFreq="569.0" missingFreq="0.0" invalidFreq="0.0"/>
                <NumericInfo minimum="0.001713" maximum="0.03113" mean="0.007040978910369071" standardDeviation="0.003002811110685435"/>
                <ContStats totalValuesSum="4.006317000000001" totalSquaresSum="0.03332897825900004"/>
            </UnivariateStats>
            <UnivariateStats field="std_compactness">
                <Counts totalFreq="569.0" missingFreq="0.0" invalidFreq="0.0"/>
                <NumericInfo minimum="0.002252" maximum="0.1354" mean="0.025478138840070306" standardDeviation="0.017908228480896703"/>
                <ContStats totalValuesSum="14.497061000000004" totalSquaresSum="0.5515173726110004"/>
            </UnivariateStats>
            <UnivariateStats field="std_concavity">
                <Counts totalFreq="569.0" missingFreq="0.0" invalidFreq="0.0"/>
                <NumericInfo minimum="0.0" maximum="0.396" mean="0.031893716344463946" standardDeviation="0.03018608948483521"/>
                <ContStats totalValuesSum="18.147524599999986" totalSquaresSum="1.096352601030101"/>
            </UnivariateStats>
            <UnivariateStats field="std_concave_points">
                <Counts totalFreq="569.0" missingFreq="0.0" invalidFreq="0.0"/>
                <NumericInfo minimum="0.0" maximum="0.05279" mean="0.011796137082601056" standardDeviation="0.006170427837066313"/>
                <ContStats totalValuesSum="6.712002000000001" totalSquaresSum="0.10080082975600001"/>
            </UnivariateStats>
            <UnivariateStats field="std_symmetry">
                <Counts totalFreq="569.0" missingFreq="0.0" invalidFreq="0.0"/>
                <NumericInfo minimum="0.007882" maximum="0.07895" mean="0.020542298769771532" standardDeviation="0.008266478017602722"/>
                <ContStats totalValuesSum="11.688568000000002" totalSquaresSum="0.27892314225400006"/>
            </UnivariateStats>
            <UnivariateStats field="std_fractal_dimension">
                <Counts totalFreq="569.0" missingFreq="0.0" invalidFreq="0.0"/>
                <NumericInfo minimum="8.948E-4" maximum="0.02984" mean="0.0037949038664323383" standardDeviation="0.002646403621190959"/>
                <ContStats totalValuesSum="2.1593003000000004" totalSquaresSum="0.012171297864969998"/>
            </UnivariateStats>
            <UnivariateStats field="worst_radius">
                <Counts totalFreq="569.0" missingFreq="0.0" invalidFreq="0.0"/>
                <NumericInfo minimum="7.93" maximum="36.04" mean="16.269189806678394" standardDeviation="4.83324158065145"/>
                <ContStats totalValuesSum="9257.169000000005" totalSquaresSum="163875.24686500014"/>
            </UnivariateStats>
            <UnivariateStats field="worst_texture">
                <Counts totalFreq="569.0" missingFreq="0.0" invalidFreq="0.0"/>
                <NumericInfo minimum="12.02" maximum="49.54" mean="25.677223198594014" standardDeviation="6.146257623181602"/>
                <ContStats totalValuesSum="14610.339999999995" totalSquaresSum="396610.00340000016"/>
            </UnivariateStats>
            <UnivariateStats field="worst_perimeter">
                <Counts totalFreq="569.0" missingFreq="0.0" invalidFreq="0.0"/>
                <NumericInfo minimum="50.41" maximum="251.2" mean="107.2612126537786" standardDeviation="33.602542269062425"/>
                <ContStats totalValuesSum="61031.63000000003" totalSquaresSum="7187672.965100002"/>
            </UnivariateStats>
            <UnivariateStats field="worst_area">
                <Counts totalFreq="569.0" missingFreq="0.0" invalidFreq="0.0"/>
                <NumericInfo minimum="185.2" maximum="4254.0" mean="880.5831282952545" standardDeviation="569.356992669951"/>
                <ContStats totalValuesSum="501051.7999999998" totalSquaresSum="6.253448362199999E8"/>
            </UnivariateStats>
            <UnivariateStats field="worst_smoothness">
                <Counts totalFreq="569.0" missingFreq="0.0" invalidFreq="0.0"/>
                <NumericInfo minimum="0.07117" maximum="0.2226" mean="0.13236859402460469" standardDeviation="0.022832467958810793"/>
                <ContStats totalValuesSum="75.31773000000007" totalSquaresSum="10.265811690099989"/>
            </UnivariateStats>
            <UnivariateStats field="worst_compactness">
                <Counts totalFreq="569.0" missingFreq="0.0" invalidFreq="0.0"/>
                <NumericInfo minimum="0.02729" maximum="1.058" mean="0.25426504393673144" standardDeviation="0.15733649450863968"/>
                <ContStats totalValuesSum="144.6768100000002" totalSquaresSum="50.84696523369997"/>
            </UnivariateStats>
            <UnivariateStats field="worst_concavity">
                <Counts totalFreq="569.0" missingFreq="0.0" invalidFreq="0.0"/>
                <NumericInfo minimum="0.0" maximum="1.252" mean="0.27218848330404205" standardDeviation="0.20862428482759204"/>
                <ContStats totalValuesSum="154.87524699999992" totalSquaresSum="66.87694196312904"/>
            </UnivariateStats>
            <UnivariateStats field="worst_concave_points">
                <Counts totalFreq="569.0" missingFreq="0.0" invalidFreq="0.0"/>
                <NumericInfo minimum="0.0" maximum="0.291" mean="0.11460622319859404" standardDeviation="0.06573235458785194"/>
                <ContStats totalValuesSum="65.210941" totalSquaresSum="9.927760364964989"/>
            </UnivariateStats>
            <UnivariateStats field="worst_symmetry">
                <Counts totalFreq="569.0" missingFreq="0.0" invalidFreq="0.0"/>
                <NumericInfo minimum="0.1565" maximum="0.6638" mean="0.29007557117750454" standardDeviation="0.06186748176602225"/>
                <ContStats totalValuesSum="165.05300000000008" totalSquaresSum="50.05191069999993"/>
            </UnivariateStats>
            <UnivariateStats field="worst_fractal_dimension">
                <Counts totalFreq="569.0" missingFreq="0.0" invalidFreq="0.0"/>
                <NumericInfo minimum="0.05504" maximum="0.2075" mean="0.08394581722319855" standardDeviation="0.01806131608747287"/>
                <ContStats totalValuesSum="47.765169999999976" totalSquaresSum="4.194973157299997"/>
            </UnivariateStats>
        </ModelStats>
        <Targets>
            <Target field="diagnosis" optype="categorical">
                <TargetValue value="M" displayValue="Malignant"/>
                <TargetValue value="B" displayValue="Benign"/>
            </Target>
        </Targets>
    </NeuralNetwork>
</PMML>
